digraph Tree {
node [shape=box, style="filled, rounded", color="black", fontname=helvetica] ;
edge [fontname=helvetica] ;
0 [label=<COG0141 &le; 0.5<br/>gini = 0.2291<br/>samples = 118<br/>value = [171, 26]>, fillcolor="#e58139d8"] ;
1 [label=<gini = 0.049<br/>samples = 90<br/>value = [155, 4]>, fillcolor="#e58139f8"] ;
0 -> 1 [labeldistance=2.5, labelangle=45, headlabel="True"] ;
2 [label=<COG0056 &le; 0.5<br/>gini = 0.4875<br/>samples = 28<br/>value = [16, 22]>, fillcolor="#399de546"] ;
0 -> 2 [labeldistance=2.5, labelangle=-45, headlabel="False"] ;
3 [label=<gini = 0.0<br/>samples = 7<br/>value = [10, 0]>, fillcolor="#e58139ff"] ;
2 -> 3 ;
4 [label=<COG0235 &le; 0.5<br/>gini = 0.3367<br/>samples = 21<br/>value = [6, 22]>, fillcolor="#399de5b9"] ;
2 -> 4 ;
5 [label=<COG0392 &le; 0.5<br/>gini = 0.4444<br/>samples = 13<br/>value = [6, 12]>, fillcolor="#399de57f"] ;
4 -> 5 ;
6 [label=<COG0668 &le; 0.5<br/>gini = 0.4082<br/>samples = 5<br/>value = [5, 2]>, fillcolor="#e5813999"] ;
5 -> 6 ;
7 [label=<gini = 0.0<br/>samples = 1<br/>value = [0, 2]>, fillcolor="#399de5ff"] ;
6 -> 7 ;
8 [label=<gini = 0.0<br/>samples = 4<br/>value = [5, 0]>, fillcolor="#e58139ff"] ;
6 -> 8 ;
9 [label=<COG0333 &le; 0.5<br/>gini = 0.1653<br/>samples = 8<br/>value = [1, 10]>, fillcolor="#399de5e6"] ;
5 -> 9 ;
10 [label=<COG0259 &le; 0.5<br/>gini = 0.4444<br/>samples = 3<br/>value = [1, 2]>, fillcolor="#399de57f"] ;
9 -> 10 ;
11 [label=<gini = 0.0<br/>samples = 1<br/>value = [0, 1]>, fillcolor="#399de5ff"] ;
10 -> 11 ;
12 [label=<gini = 0.5<br/>samples = 2<br/>value = [1, 1]>, fillcolor="#e5813900"] ;
10 -> 12 ;
13 [label=<gini = 0.0<br/>samples = 5<br/>value = [0, 8]>, fillcolor="#399de5ff"] ;
9 -> 13 ;
14 [label=<gini = 0.0<br/>samples = 8<br/>value = [0, 10]>, fillcolor="#399de5ff"] ;
4 -> 14 ;
}