digraph Tree {
node [shape=box, style="filled, rounded", color="black", fontname=helvetica] ;
edge [fontname=helvetica] ;
0 [label=<COG0807 &le; 0.5<br/>gini = 0.2511<br/>samples = 123<br/>value = [168, 29]>, fillcolor="#e58139d3"] ;
1 [label=<COG1621 &le; 0.5<br/>gini = 0.1264<br/>samples = 111<br/>value = [165, 12]>, fillcolor="#e58139ec"] ;
0 -> 1 [labeldistance=2.5, labelangle=45, headlabel="True"] ;
2 [label=<gini = 0.0785<br/>samples = 107<br/>value = [164, 7]>, fillcolor="#e58139f4"] ;
1 -> 2 ;
3 [label=<COG2227 &le; 0.5<br/>gini = 0.2778<br/>samples = 4<br/>value = [1, 5]>, fillcolor="#399de5cc"] ;
1 -> 3 ;
4 [label=<gini = 0.0<br/>samples = 3<br/>value = [0, 5]>, fillcolor="#399de5ff"] ;
3 -> 4 ;
5 [label=<gini = 0.0<br/>samples = 1<br/>value = [1, 0]>, fillcolor="#e58139ff"] ;
3 -> 5 ;
6 [label=<COG2170 &le; 0.5<br/>gini = 0.255<br/>samples = 12<br/>value = [3, 17]>, fillcolor="#399de5d2"] ;
0 -> 6 [labeldistance=2.5, labelangle=-45, headlabel="False"] ;
7 [label=<COG0044 &le; 0.5<br/>gini = 0.1049<br/>samples = 11<br/>value = [1, 17]>, fillcolor="#399de5f0"] ;
6 -> 7 ;
8 [label=<COG0681 &le; 0.5<br/>gini = 0.5<br/>samples = 2<br/>value = [1, 1]>, fillcolor="#e5813900"] ;
7 -> 8 ;
9 [label=<gini = 0.0<br/>samples = 1<br/>value = [0, 1]>, fillcolor="#399de5ff"] ;
8 -> 9 ;
10 [label=<gini = 0.0<br/>samples = 1<br/>value = [1, 0]>, fillcolor="#e58139ff"] ;
8 -> 10 ;
11 [label=<gini = 0.0<br/>samples = 9<br/>value = [0, 16]>, fillcolor="#399de5ff"] ;
7 -> 11 ;
12 [label=<gini = 0.0<br/>samples = 1<br/>value = [2, 0]>, fillcolor="#e58139ff"] ;
6 -> 12 ;
}