digraph Tree {
node [shape=box, style="filled, rounded", color="black", fontname=helvetica] ;
edge [fontname=helvetica] ;
0 [label=<COG1534 &le; 0.5<br/>gini = 0.2439<br/>samples = 125<br/>value = [169, 28]>, fillcolor="#e58139d5"] ;
1 [label=<COG1577 &le; 0.5<br/>gini = 0.1669<br/>samples = 116<br/>value = [168, 17]>, fillcolor="#e58139e5"] ;
0 -> 1 [labeldistance=2.5, labelangle=45, headlabel="True"] ;
2 [label=<gini = 0.0872<br/>samples = 108<br/>value = [167, 8]>, fillcolor="#e58139f3"] ;
1 -> 2 ;
3 [label=<COG4860 &le; 0.5<br/>gini = 0.18<br/>samples = 8<br/>value = [1, 9]>, fillcolor="#399de5e3"] ;
1 -> 3 ;
4 [label=<gini = 0.0<br/>samples = 7<br/>value = [0, 9]>, fillcolor="#399de5ff"] ;
3 -> 4 ;
5 [label=<gini = 0.0<br/>samples = 1<br/>value = [1, 0]>, fillcolor="#e58139ff"] ;
3 -> 5 ;
6 [label=<COG0072 &le; 0.5<br/>gini = 0.1528<br/>samples = 9<br/>value = [1, 11]>, fillcolor="#399de5e8"] ;
0 -> 6 [labeldistance=2.5, labelangle=-45, headlabel="False"] ;
7 [label=<gini = 0.0<br/>samples = 1<br/>value = [1, 0]>, fillcolor="#e58139ff"] ;
6 -> 7 ;
8 [label=<gini = 0.0<br/>samples = 8<br/>value = [0, 11]>, fillcolor="#399de5ff"] ;
6 -> 8 ;
}